svm_type c_svc
kernel_type rbf
gamma 0.008403361344537815
nr_class 2
total_sv 203
rho 0.9165947477465786
label 1 -1
nr_sv 94 109
SV
1.0 5:1.0 11:1.0 15:1.0 32:1.0 39:1.0 40:1.0 52:1.0 63:1.0 67:1.0 73:1.0 74:1.0 76:1.0 78:1.0 83:1.0 
1.0 5:1.0 18:1.0 19:1.0 39:1.0 40:1.0 63:1.0 67:1.0 73:1.0 74:1.0 76:1.0 80:1.0 83:1.0 
1.0 5:1.0 6:1.0 14:1.0 27:1.0 35:1.0 42:1.0 57:1.0 64:1.0 67:1.0 73:1.0 74:1.0 76:1.0 82:1.0 83:1.0 
1.0 3:1.0 6:1.0 17:1.0 19:1.0 39:1.0 42:1.0 50:1.0 64:1.0 70:1.0 72:1.0 74:1.0 76:1.0 82:1.0 83:1.0 
1.0 4:1.0 6:1.0 14:1.0 29:1.0 39:1.0 42:1.0 47:1.0 64:1.0 67:1.0 73:1.0 74:1.0 76:1.0 79:1.0 83:1.0 
1.0 5:1.0 6:1.0 15:1.0 22:1.0 36:1.0 40:1.0 49:1.0 63:1.0 67:1.0 73:1.0 74:1.0 76:1.0 80:1.0 83:1.0 
1.0 3:1.0 6:1.0 16:1.0 21:1.0 35:1.0 40:1.0 54:1.0 63:1.0 67:1.0 73:1.0 75:1.0 76:1.0 81:1.0 83:1.0 
1.0 5:1.0 6:1.0 16:1.0 32:1.0 39:1.0 40:1.0 52:1.0 63:1.0 67:1.0 73:1.0 74:1.0 77:1.0 82:1.0 83:1.0 
1.0 5:1.0 7:1.0 18:1.0 19:1.0 39:1.0 40:1.0 50:1.0 63:1.0 67:1.0 73:1.0 74:1.0 76:1.0 80:1.0 87:1.0 
1.0 4:1.0 6:1.0 15:1.0 19:1.0 39:1.0 40:1.0 48:1.0 63:1.0 67:1.0 73:1.0 75:1.0 76:1.0 80:1.0 83:1.0 
1.0 4:1.0 7:1.0 17:1.0 29:1.0 39:1.0 40:1.0 51:1.0 63:1.0 67:1.0 73:1.0 74:1.0 76:1.0 81:1.0 83:1.0 
1.0 5:1.0 6:1.0 15:1.0 22:1.0 36:1.0 40:1.0 50:1.0 63:1.0 67:1.0 73:1.0 74:1.0 76:1.0 82:1.0 83:1.0 
1.0 5:1.0 6:1.0 15:1.0 20:1.0 37:1.0 40:1.0 57:1.0 63:1.0 67:1.0 73:1.0 74:1.0 76:1.0 78:1.0 83:1.0 
1.0 3:1.0 6:1.0 17:1.0 22:1.0 36:1.0 40:1.0 51:1.0 63:1.0 67:1.0 73:1.0 74:1.0 76:1.0 80:1.0 83:1.0 
1.0 3:1.0 6:1.0 18:1.0 22:1.0 36:1.0 40:1.0 51:1.0 63:1.0 67:1.0 73:1.0 74:1.0 76:1.0 82:1.0 83:1.0 
1.0 2:1.0 6:1.0 18:1.0 22:1.0 36:1.0 40:1.0 50:1.0 63:1.0 67:1.0 73:1.0 74:1.0 76:1.0 82:1.0 83:1.0 
1.0 4:1.0 6:1.0 16:1.0 19:1.0 39:1.0 40:1.0 52:1.0 61:1.0 67:1.0 72:1.0 75:1.0 76:1.0 78:1.0 83:1.0 
1.0 2:1.0 6:1.0 16:1.0 20:1.0 37:1.0 40:1.0 47:1.0 63:1.0 67:1.0 73:1.0 75:1.0 76:1.0 80:1.0 83:1.0 
1.0 4:1.0 6:1.0 16:1.0 22:1.0 36:1.0 40:1.0 49:1.0 61:1.0 71:1.0 72:1.0 74:1.0 76:1.0 80:1.0 83:1.0 
1.0 4:1.0 6:1.0 14:1.0 20:1.0 37:1.0 40:1.0 47:1.0 63:1.0 67:1.0 73:1.0 74:1.0 76:1.0 78:1.0 83:1.0 
1.0 5:1.0 10:1.0 16:1.0 29:1.0 39:1.0 40:1.0 52:1.0 63:1.0 67:1.0 73:1.0 74:1.0 76:1.0 80:1.0 83:1.0 
1.0 3:1.0 7:1.0 18:1.0 19:1.0 39:1.0 40:1.0 50:1.0 63:1.0 67:1.0 73:1.0 74:1.0 76:1.0 81:1.0 83:1.0 
1.0 5:1.0 6:1.0 15:1.0 19:1.0 39:1.0 40:1.0 51:1.0 63:1.0 67:1.0 73:1.0 75:1.0 76:1.0 82:1.0 83:1.0 
1.0 3:1.0 6:1.0 17:1.0 19:1.0 39:1.0 40:1.0 52:1.0 63:1.0 67:1.0 73:1.0 75:1.0 76:1.0 82:1.0 83:1.0 
1.0 5:1.0 9:1.0 14:1.0 22:1.0 36:1.0 40:1.0 51:1.0 63:1.0 67:1.0 73:1.0 75:1.0 76:1.0 80:1.0 83:1.0 
1.0 2:1.0 6:1.0 14:1.0 22:1.0 36:1.0 40:1.0 48:1.0 63:1.0 67:1.0 73:1.0 74:1.0 76:1.0 80:1.0 83:1.0 
1.0 3:1.0 6:1.0 17:1.0 19:1.0 39:1.0 40:1.0 51:1.0 63:1.0 67:1.0 73:1.0 75:1.0 76:1.0 80:1.0 83:1.0 
1.0 5:1.0 10:1.0 17:1.0 21:1.0 35:1.0 40:1.0 48:1.0 63:1.0 71:1.0 73:1.0 74:1.0 76:1.0 80:1.0 83:1.0 
1.0 4:1.0 6:1.0 15:1.0 22:1.0 36:1.0 40:1.0 50:1.0 63:1.0 67:1.0 73:1.0 74:1.0 76:1.0 82:1.0 83:1.0 
1.0 5:1.0 6:1.0 17:1.0 25:1.0 38:1.0 40:1.0 51:1.0 63:1.0 67:1.0 73:1.0 74:1.0 76:1.0 80:1.0 88:1.0 
1.0 3:1.0 6:1.0 17:1.0 29:1.0 39:1.0 40:1.0 52:1.0 63:1.0 67:1.0 73:1.0 74:1.0 76:1.0 79:1.0 83:1.0 
1.0 2:1.0 10:1.0 18:1.0 32:1.0 39:1.0 42:1.0 52:1.0 64:1.0 67:1.0 73:1.0 74:1.0 76:1.0 82:1.0 103:1.0 
1.0 4:1.0 6:1.0 16:1.0 22:1.0 36:1.0 40:1.0 48:1.0 63:1.0 67:1.0 73:1.0 75:1.0 76:1.0 81:1.0 83:1.0 
1.0 4:1.0 11:1.0 16:1.0 19:1.0 39:1.0 40:1.0 51:1.0 63:1.0 67:1.0 73:1.0 75:1.0 76:1.0 80:1.0 83:1.0 
1.0 5:1.0 7:1.0 18:1.0 19:1.0 39:1.0 40:1.0 47:1.0 61:1.0 67:1.0 72:1.0 74:1.0 76:1.0 82:1.0 83:1.0 
1.0 4:1.0 6:1.0 17:1.0 20:1.0 37:1.0 40:1.0 48:1.0 63:1.0 71:1.0 73:1.0 74:1.0 76:1.0 80:1.0 83:1.0 
1.0 3:1.0 6:1.0 16:1.0 29:1.0 39:1.0 40:1.0 50:1.0 63:1.0 67:1.0 73:1.0 74:1.0 76:1.0 82:1.0 83:1.0 
1.0 5:1.0 6:1.0 16:1.0 19:1.0 39:1.0 41:1.0 51:1.0 64:1.0 71:1.0 73:1.0 75:1.0 76:1.0 80:1.0 83:1.0 
1.0 3:1.0 6:1.0 14:1.0 20:1.0 37:1.0 40:1.0 47:1.0 63:1.0 67:1.0 73:1.0 74:1.0 76:1.0 82:1.0 83:1.0 
1.0 3:1.0 6:1.0 14:1.0 22:1.0 36:1.0 40:1.0 57:1.0 63:1.0 67:1.0 73:1.0 75:1.0 76:1.0 82:1.0 83:1.0 
1.0 4:1.0 6:1.0 17:1.0 19:1.0 39:1.0 40:1.0 52:1.0 63:1.0 67:1.0 73:1.0 74:1.0 77:1.0 80:1.0 83:1.0 
1.0 4:1.0 6:1.0 14:1.0 25:1.0 38:1.0 40:1.0 50:1.0 63:1.0 67:1.0 73:1.0 74:1.0 77:1.0 82:1.0 83:1.0 
1.0 5:1.0 9:1.0 14:1.0 22:1.0 36:1.0 40:1.0 55:1.0 63:1.0 67:1.0 73:1.0 74:1.0 76:1.0 80:1.0 83:1.0 
1.0 5:1.0 16:1.0 20:1.0 37:1.0 40:1.0 61:1.0 67:1.0 72:1.0 74:1.0 76:1.0 81:1.0 83:1.0 
1.0 5:1.0 6:1.0 14:1.0 22:1.0 36:1.0 40:1.0 53:1.0 63:1.0 67:1.0 73:1.0 74:1.0 76:1.0 80:1.0 83:1.0 
1.0 5:1.0 6:1.0 16:1.0 19:1.0 39:1.0 43:1.0 51:1.0 64:1.0 67:1.0 73:1.0 75:1.0 76:1.0 81:1.0 83:1.0 
1.0 4:1.0 6:1.0 17:1.0 22:1.0 36:1.0 40:1.0 47:1.0 63:1.0 67:1.0 73:1.0 74:1.0 76:1.0 81:1.0 83:1.0 
1.0 5:1.0 6:1.0 15:1.0 24:1.0 38:1.0 40:1.0 51:1.0 61:1.0 71:1.0 72:1.0 74:1.0 76:1.0 80:1.0 83:1.0 
1.0 2:1.0 10:1.0 15:1.0 19:1.0 39:1.0 42:1.0 52:1.0 64:1.0 71:1.0 73:1.0 75:1.0 76:1.0 81:1.0 
1.0 5:1.0 7:1.0 14:1.0 22:1.0 36:1.0 40:1.0 51:1.0 63:1.0 67:1.0 73:1.0 75:1.0 76:1.0 82:1.0 83:1.0 
1.0 4:1.0 8:1.0 15:1.0 19:1.0 39:1.0 40:1.0 50:1.0 63:1.0 67:1.0 73:1.0 74:1.0 76:1.0 82:1.0 83:1.0 
1.0 3:1.0 8:1.0 17:1.0 22:1.0 36:1.0 40:1.0 48:1.0 63:1.0 67:1.0 73:1.0 74:1.0 76:1.0 82:1.0 
1.0 4:1.0 6:1.0 18:1.0 20:1.0 37:1.0 40:1.0 57:1.0 63:1.0 67:1.0 73:1.0 74:1.0 76:1.0 82:1.0 83:1.0 
1.0 3:1.0 6:1.0 17:1.0 22:1.0 36:1.0 40:1.0 54:1.0 63:1.0 67:1.0 73:1.0 74:1.0 76:1.0 82:1.0 83:1.0 
1.0 5:1.0 10:1.0 15:1.0 19:1.0 39:1.0 40:1.0 52:1.0 63:1.0 67:1.0 73:1.0 74:1.0 77:1.0 80:1.0 83:1.0 
1.0 3:1.0 10:1.0 17:1.0 29:1.0 39:1.0 40:1.0 52:1.0 61:1.0 67:1.0 72:1.0 74:1.0 76:1.0 80:1.0 83:1.0 
1.0 1:1.0 6:1.0 16:1.0 19:1.0 39:1.0 40:1.0 51:1.0 61:1.0 67:1.0 72:1.0 74:1.0 76:1.0 78:1.0 83:1.0 
1.0 3:1.0 11:1.0 14:1.0 29:1.0 39:1.0 40:1.0 52:1.0 63:1.0 67:1.0 73:1.0 75:1.0 76:1.0 79:1.0 83:1.0 
1.0 4:1.0 6:1.0 15:1.0 20:1.0 37:1.0 40:1.0 50:1.0 63:1.0 67:1.0 73:1.0 75:1.0 76:1.0 80:1.0 83:1.0 
1.0 5:1.0 8:1.0 17:1.0 20:1.0 37:1.0 40:1.0 51:1.0 63:1.0 67:1.0 73:1.0 74:1.0 76:1.0 80:1.0 83:1.0 
1.0 4:1.0 6:1.0 15:1.0 29:1.0 39:1.0 40:1.0 47:1.0 63:1.0 67:1.0 73:1.0 74:1.0 76:1.0 78:1.0 83:1.0 
1.0 2:1.0 6:1.0 15:1.0 20:1.0 37:1.0 40:1.0 56:1.0 63:1.0 67:1.0 73:1.0 74:1.0 76:1.0 82:1.0 83:1.0 
1.0 3:1.0 6:1.0 15:1.0 20:1.0 37:1.0 40:1.0 51:1.0 63:1.0 67:1.0 73:1.0 75:1.0 76:1.0 80:1.0 83:1.0 
1.0 3:1.0 6:1.0 17:1.0 20:1.0 37:1.0 40:1.0 55:1.0 61:1.0 67:1.0 72:1.0 74:1.0 76:1.0 79:1.0 83:1.0 
1.0 5:1.0 6:1.0 16:1.0 32:1.0 39:1.0 40:1.0 51:1.0 63:1.0 67:1.0 73:1.0 74:1.0 76:1.0 80:1.0 83:1.0 
1.0 3:1.0 7:1.0 14:1.0 19:1.0 39:1.0 40:1.0 52:1.0 63:1.0 67:1.0 73:1.0 74:1.0 76:1.0 82:1.0 83:1.0 
1.0 5:1.0 7:1.0 14:1.0 27:1.0 35:1.0 45:1.0 55:1.0 64:1.0 67:1.0 73:1.0 74:1.0 76:1.0 78:1.0 99:1.0 
1.0 2:1.0 6:1.0 16:1.0 22:1.0 36:1.0 40:1.0 54:1.0 63:1.0 67:1.0 73:1.0 74:1.0 76:1.0 80:1.0 83:1.0 
1.0 4:1.0 10:1.0 17:1.0 20:1.0 37:1.0 40:1.0 48:1.0 63:1.0 67:1.0 73:1.0 74:1.0 76:1.0 80:1.0 83:1.0 
1.0 3:1.0 6:1.0 15:1.0 19:1.0 39:1.0 40:1.0 50:1.0 63:1.0 67:1.0 73:1.0 74:1.0 76:1.0 82:1.0 83:1.0 
1.0 5:1.0 6:1.0 18:1.0 19:1.0 39:1.0 40:1.0 51:1.0 63:1.0 67:1.0 73:1.0 74:1.0 76:1.0 82:1.0 83:1.0 
1.0 2:1.0 7:1.0 17:1.0 22:1.0 36:1.0 40:1.0 48:1.0 63:1.0 67:1.0 73:1.0 74:1.0 76:1.0 80:1.0 83:1.0 
1.0 2:1.0 6:1.0 15:1.0 20:1.0 37:1.0 40:1.0 51:1.0 63:1.0 67:1.0 73:1.0 74:1.0 76:1.0 80:1.0 83:1.0 
1.0 3:1.0 6:1.0 17:1.0 19:1.0 39:1.0 40:1.0 52:1.0 63:1.0 67:1.0 73:1.0 74:1.0 76:1.0 80:1.0 83:1.0 
1.0 1:1.0 6:1.0 18:1.0 27:1.0 35:1.0 42:1.0 49:1.0 64:1.0 67:1.0 73:1.0 74:1.0 76:1.0 82:1.0 83:1.0 
1.0 4:1.0 6:1.0 14:1.0 20:1.0 37:1.0 40:1.0 50:1.0 63:1.0 67:1.0 73:1.0 74:1.0 76:1.0 81:1.0 83:1.0 
1.0 3:1.0 6:1.0 15:1.0 19:1.0 39:1.0 40:1.0 54:1.0 63:1.0 67:1.0 73:1.0 74:1.0 76:1.0 82:1.0 83:1.0 
1.0 3:1.0 6:1.0 17:1.0 23:1.0 39:1.0 43:1.0 52:1.0 64:1.0 67:1.0 73:1.0 74:1.0 76:1.0 79:1.0 83:1.0 
1.0 2:1.0 9:1.0 18:1.0 19:1.0 39:1.0 40:1.0 51:1.0 63:1.0 67:1.0 73:1.0 74:1.0 76:1.0 80:1.0 83:1.0 
1.0 2:1.0 6:1.0 17:1.0 19:1.0 39:1.0 40:1.0 51:1.0 63:1.0 67:1.0 73:1.0 74:1.0 76:1.0 80:1.0 83:1.0 
1.0 5:1.0 8:1.0 15:1.0 23:1.0 39:1.0 40:1.0 52:1.0 63:1.0 67:1.0 73:1.0 75:1.0 76:1.0 82:1.0 83:1.0 
1.0 4:1.0 6:1.0 16:1.0 22:1.0 36:1.0 40:1.0 57:1.0 63:1.0 67:1.0 73:1.0 74:1.0 76:1.0 82:1.0 83:1.0 
1.0 4:1.0 7:1.0 16:1.0 20:1.0 37:1.0 40:1.0 48:1.0 63:1.0 67:1.0 73:1.0 74:1.0 77:1.0 80:1.0 83:1.0 
1.0 4:1.0 7:1.0 14:1.0 22:1.0 36:1.0 40:1.0 51:1.0 63:1.0 67:1.0 73:1.0 74:1.0 76:1.0 80:1.0 83:1.0 
1.0 2:1.0 6:1.0 16:1.0 19:1.0 39:1.0 46:1.0 51:1.0 61:1.0 67:1.0 72:1.0 74:1.0 76:1.0 80:1.0 83:1.0 
1.0 4:1.0 6:1.0 15:1.0 25:1.0 38:1.0 40:1.0 55:1.0 61:1.0 67:1.0 72:1.0 74:1.0 76:1.0 80:1.0 83:1.0 
1.0 5:1.0 7:1.0 16:1.0 22:1.0 36:1.0 42:1.0 56:1.0 64:1.0 67:1.0 73:1.0 75:1.0 76:1.0 80:1.0 83:1.0 
1.0 3:1.0 9:1.0 16:1.0 23:1.0 39:1.0 42:1.0 52:1.0 64:1.0 67:1.0 72:1.0 74:1.0 76:1.0 82:1.0 83:1.0 
1.0 2:1.0 7:1.0 16:1.0 22:1.0 36:1.0 40:1.0 57:1.0 63:1.0 67:1.0 73:1.0 75:1.0 76:1.0 80:1.0 83:1.0 
1.0 5:1.0 14:1.0 23:1.0 39:1.0 40:1.0 63:1.0 67:1.0 73:1.0 75:1.0 76:1.0 78:1.0 83:1.0 
1.0 4:1.0 7:1.0 14:1.0 29:1.0 39:1.0 40:1.0 56:1.0 63:1.0 67:1.0 73:1.0 74:1.0 76:1.0 80:1.0 83:1.0 
1.0 5:1.0 6:1.0 15:1.0 29:1.0 39:1.0 40:1.0 51:1.0 63:1.0 67:1.0 73:1.0 75:1.0 76:1.0 82:1.0 83:1.0 
1.0 2:1.0 6:1.0 17:1.0 22:1.0 36:1.0 40:1.0 54:1.0 63:1.0 67:1.0 73:1.0 74:1.0 76:1.0 82:1.0 83:1.0 
1.0 3:1.0 6:1.0 14:1.0 19:1.0 39:1.0 40:1.0 57:1.0 63:1.0 67:1.0 73:1.0 75:1.0 76:1.0 82:1.0 83:1.0 
-1.0 3:1.0 11:1.0 14:1.0 19:1.0 39:1.0 42:1.0 55:1.0 64:1.0 67:1.0 73:1.0 75:1.0 76:1.0 80:1.0 83:1.0 
-0.8904453194604844 3:1.0 6:1.0 17:1.0 27:1.0 35:1.0 40:1.0 57:1.0 63:1.0 69:1.0 73:1.0 74:1.0 76:1.0 81:1.0 103:1.0 
-1.0 4:1.0 6:1.0 15:1.0 21:1.0 35:1.0 40:1.0 57:1.0 63:1.0 67:1.0 73:1.0 74:1.0 77:1.0 80:1.0 83:1.0 
-1.0 2:1.0 6:1.0 16:1.0 22:1.0 36:1.0 40:1.0 54:1.0 63:1.0 67:1.0 73:1.0 75:1.0 76:1.0 80:1.0 83:1.0 
-1.0 5:1.0 6:1.0 15:1.0 20:1.0 37:1.0 40:1.0 50:1.0 63:1.0 67:1.0 73:1.0 75:1.0 76:1.0 80:1.0 83:1.0 
-1.0 5:1.0 7:1.0 16:1.0 29:1.0 39:1.0 40:1.0 48:1.0 63:1.0 67:1.0 73:1.0 74:1.0 76:1.0 78:1.0 83:1.0 
-1.0 2:1.0 6:1.0 15:1.0 19:1.0 39:1.0 40:1.0 52:1.0 63:1.0 67:1.0 73:1.0 74:1.0 76:1.0 82:1.0 83:1.0 
-0.5831954952829327 3:1.0 6:1.0 14:1.0 22:1.0 36:1.0 40:1.0 54:1.0 63:1.0 67:1.0 73:1.0 74:1.0 76:1.0 80:1.0 83:1.0 
-1.0 5:1.0 8:1.0 14:1.0 19:1.0 39:1.0 40:1.0 50:1.0 63:1.0 67:1.0 73:1.0 74:1.0 76:1.0 82:1.0 83:1.0 
-0.40672210933493746 2:1.0 6:1.0 14:1.0 20:1.0 37:1.0 40:1.0 48:1.0 63:1.0 67:1.0 73:1.0 74:1.0 76:1.0 81:1.0 83:1.0 
-0.7957448439944987 5:1.0 6:1.0 14:1.0 22:1.0 36:1.0 40:1.0 48:1.0 63:1.0 67:1.0 73:1.0 74:1.0 76:1.0 78:1.0 83:1.0 
-1.0 5:1.0 15:1.0 22:1.0 36:1.0 40:1.0 63:1.0 67:1.0 73:1.0 74:1.0 76:1.0 82:1.0 83:1.0 
-1.0 2:1.0 6:1.0 16:1.0 25:1.0 38:1.0 40:1.0 55:1.0 63:1.0 67:1.0 73:1.0 74:1.0 77:1.0 81:1.0 83:1.0 
-1.0 5:1.0 7:1.0 14:1.0 22:1.0 36:1.0 40:1.0 56:1.0 63:1.0 67:1.0 73:1.0 74:1.0 77:1.0 82:1.0 83:1.0 
-0.24738432840082997 1:1.0 6:1.0 17:1.0 22:1.0 36:1.0 42:1.0 50:1.0 64:1.0 67:1.0 72:1.0 75:1.0 76:1.0 80:1.0 83:1.0 
-1.0 1:1.0 6:1.0 17:1.0 20:1.0 37:1.0 42:1.0 51:1.0 64:1.0 67:1.0 72:1.0 75:1.0 76:1.0 80:1.0 83:1.0 
-1.0 3:1.0 6:1.0 16:1.0 29:1.0 39:1.0 40:1.0 52:1.0 63:1.0 67:1.0 73:1.0 74:1.0 76:1.0 78:1.0 83:1.0 
-1.0 5:1.0 6:1.0 15:1.0 22:1.0 36:1.0 40:1.0 54:1.0 63:1.0 67:1.0 73:1.0 75:1.0 76:1.0 80:1.0 83:1.0 
-1.0 4:1.0 6:1.0 18:1.0 25:1.0 38:1.0 40:1.0 57:1.0 63:1.0 67:1.0 73:1.0 74:1.0 76:1.0 82:1.0 83:1.0 
-1.0 4:1.0 6:1.0 17:1.0 22:1.0 36:1.0 40:1.0 57:1.0 63:1.0 67:1.0 73:1.0 74:1.0 76:1.0 82:1.0 83:1.0 
-1.0 5:1.0 7:1.0 17:1.0 20:1.0 37:1.0 40:1.0 50:1.0 63:1.0 67:1.0 73:1.0 74:1.0 76:1.0 82:1.0 83:1.0 
-1.0 5:1.0 6:1.0 14:1.0 20:1.0 37:1.0 40:1.0 48:1.0 63:1.0 67:1.0 73:1.0 74:1.0 76:1.0 80:1.0 83:1.0 
-1.0 4:1.0 7:1.0 16:1.0 20:1.0 37:1.0 40:1.0 56:1.0 63:1.0 67:1.0 73:1.0 74:1.0 76:1.0 82:1.0 83:1.0 
-1.0 3:1.0 11:1.0 14:1.0 20:1.0 37:1.0 40:1.0 51:1.0 63:1.0 67:1.0 73:1.0 74:1.0 76:1.0 80:1.0 83:1.0 
-1.0 3:1.0 6:1.0 14:1.0 20:1.0 37:1.0 40:1.0 48:1.0 63:1.0 67:1.0 73:1.0 74:1.0 77:1.0 81:1.0 83:1.0 
-1.0 4:1.0 10:1.0 15:1.0 29:1.0 39:1.0 41:1.0 52:1.0 64:1.0 67:1.0 72:1.0 74:1.0 76:1.0 78:1.0 83:1.0 
-1.0 2:1.0 9:1.0 16:1.0 24:1.0 38:1.0 40:1.0 55:1.0 63:1.0 67:1.0 73:1.0 74:1.0 76:1.0 82:1.0 83:1.0 
-1.0 5:1.0 10:1.0 16:1.0 19:1.0 39:1.0 43:1.0 52:1.0 64:1.0 67:1.0 73:1.0 74:1.0 76:1.0 78:1.0 
-1.0 3:1.0 10:1.0 17:1.0 19:1.0 39:1.0 40:1.0 55:1.0 63:1.0 67:1.0 73:1.0 74:1.0 76:1.0 80:1.0 83:1.0 
-1.0 5:1.0 8:1.0 14:1.0 19:1.0 39:1.0 40:1.0 54:1.0 63:1.0 67:1.0 73:1.0 75:1.0 76:1.0 78:1.0 83:1.0 
-1.0 5:1.0 16:1.0 22:1.0 36:1.0 40:1.0 63:1.0 67:1.0 73:1.0 74:1.0 76:1.0 80:1.0 83:1.0 
-1.0 3:1.0 6:1.0 15:1.0 19:1.0 39:1.0 40:1.0 52:1.0 63:1.0 68:1.0 73:1.0 74:1.0 76:1.0 81:1.0 
-0.09389860523318327 1:1.0 6:1.0 15:1.0 29:1.0 39:1.0 42:1.0 50:1.0 64:1.0 67:1.0 73:1.0 74:1.0 76:1.0 78:1.0 83:1.0 
-1.0 3:1.0 6:1.0 18:1.0 23:1.0 39:1.0 42:1.0 52:1.0 64:1.0 67:1.0 73:1.0 74:1.0 76:1.0 82:1.0 83:1.0 
-1.0 3:1.0 6:1.0 16:1.0 20:1.0 37:1.0 40:1.0 52:1.0 63:1.0 67:1.0 73:1.0 74:1.0 76:1.0 82:1.0 83:1.0 
-1.0 3:1.0 6:1.0 15:1.0 21:1.0 35:1.0 40:1.0 48:1.0 63:1.0 67:1.0 73:1.0 74:1.0 76:1.0 82:1.0 83:1.0 
-1.0 2:1.0 9:1.0 18:1.0 19:1.0 39:1.0 40:1.0 51:1.0 63:1.0 67:1.0 73:1.0 74:1.0 76:1.0 80:1.0 83:1.0 
-1.0 4:1.0 16:1.0 22:1.0 36:1.0 40:1.0 63:1.0 67:1.0 73:1.0 74:1.0 76:1.0 80:1.0 83:1.0 
-1.0 4:1.0 6:1.0 17:1.0 22:1.0 36:1.0 40:1.0 50:1.0 63:1.0 67:1.0 73:1.0 74:1.0 76:1.0 80:1.0 83:1.0 
-1.0 3:1.0 6:1.0 18:1.0 19:1.0 39:1.0 40:1.0 50:1.0 61:1.0 67:1.0 72:1.0 74:1.0 76:1.0 78:1.0 83:1.0 
-0.5320084333249212 2:1.0 6:1.0 14:1.0 24:1.0 38:1.0 40:1.0 53:1.0 63:1.0 67:1.0 73:1.0 74:1.0 76:1.0 80:1.0 83:1.0 
-1.0 3:1.0 6:1.0 18:1.0 20:1.0 37:1.0 40:1.0 51:1.0 63:1.0 67:1.0 73:1.0 74:1.0 76:1.0 80:1.0 83:1.0 
-1.0 3:1.0 7:1.0 17:1.0 22:1.0 36:1.0 40:1.0 48:1.0 63:1.0 67:1.0 73:1.0 74:1.0 76:1.0 82:1.0 83:1.0 
-1.0 5:1.0 16:1.0 22:1.0 36:1.0 40:1.0 63:1.0 71:1.0 73:1.0 74:1.0 76:1.0 78:1.0 83:1.0 
-1.0 4:1.0 8:1.0 18:1.0 20:1.0 37:1.0 40:1.0 50:1.0 63:1.0 67:1.0 73:1.0 74:1.0 76:1.0 82:1.0 83:1.0 
-0.055812431613628755 2:1.0 6:1.0 16:1.0 22:1.0 36:1.0 40:1.0 57:1.0 63:1.0 67:1.0 73:1.0 74:1.0 76:1.0 82:1.0 83:1.0 
-1.0 4:1.0 6:1.0 15:1.0 22:1.0 36:1.0 40:1.0 50:1.0 63:1.0 67:1.0 73:1.0 74:1.0 76:1.0 80:1.0 83:1.0 
-1.0 4:1.0 6:1.0 17:1.0 33:1.0 35:1.0 40:1.0 57:1.0 63:1.0 67:1.0 73:1.0 74:1.0 76:1.0 79:1.0 103:1.0 
-1.0 2:1.0 6:1.0 17:1.0 19:1.0 39:1.0 40:1.0 49:1.0 63:1.0 67:1.0 73:1.0 74:1.0 76:1.0 82:1.0 83:1.0 
-1.0 5:1.0 6:1.0 15:1.0 22:1.0 36:1.0 40:1.0 49:1.0 63:1.0 71:1.0 73:1.0 74:1.0 76:1.0 82:1.0 85:1.0 
-1.0 5:1.0 6:1.0 14:1.0 29:1.0 39:1.0 41:1.0 52:1.0 64:1.0 67:1.0 72:1.0 74:1.0 76:1.0 80:1.0 83:1.0 
-0.2748479144069886 4:1.0 6:1.0 18:1.0 21:1.0 35:1.0 40:1.0 57:1.0 63:1.0 67:1.0 73:1.0 74:1.0 77:1.0 80:1.0 83:1.0 
-1.0 2:1.0 6:1.0 14:1.0 22:1.0 36:1.0 40:1.0 51:1.0 63:1.0 67:1.0 73:1.0 74:1.0 76:1.0 82:1.0 83:1.0 
-0.5890083634013554 4:1.0 11:1.0 15:1.0 22:1.0 36:1.0 40:1.0 59:1.0 63:1.0 67:1.0 73:1.0 74:1.0 76:1.0 80:1.0 83:1.0 
-1.0 5:1.0 7:1.0 15:1.0 25:1.0 38:1.0 40:1.0 56:1.0 63:1.0 67:1.0 73:1.0 74:1.0 76:1.0 80:1.0 83:1.0 
-1.0 4:1.0 8:1.0 16:1.0 19:1.0 39:1.0 42:1.0 50:1.0 64:1.0 67:1.0 73:1.0 75:1.0 76:1.0 82:1.0 83:1.0 
-0.2424507541040819 1:1.0 6:1.0 17:1.0 21:1.0 35:1.0 40:1.0 48:1.0 63:1.0 67:1.0 73:1.0 74:1.0 76:1.0 82:1.0 83:1.0 
-1.0 3:1.0 6:1.0 16:1.0 22:1.0 36:1.0 40:1.0 57:1.0 63:1.0 67:1.0 73:1.0 75:1.0 76:1.0 80:1.0 83:1.0 
-0.05898574391473162 5:1.0 6:1.0 15:1.0 20:1.0 37:1.0 44:1.0 51:1.0 66:1.0 67:1.0 72:1.0 74:1.0 76:1.0 80:1.0 83:1.0 
-0.48774356840701727 4:1.0 7:1.0 17:1.0 27:1.0 35:1.0 40:1.0 48:1.0 63:1.0 67:1.0 73:1.0 74:1.0 76:1.0 80:1.0 99:1.0 
-1.0 5:1.0 7:1.0 15:1.0 20:1.0 37:1.0 40:1.0 51:1.0 63:1.0 67:1.0 73:1.0 74:1.0 76:1.0 78:1.0 83:1.0 
-1.0 2:1.0 6:1.0 18:1.0 19:1.0 39:1.0 40:1.0 48:1.0 63:1.0 67:1.0 73:1.0 74:1.0 76:1.0 80:1.0 83:1.0 
-0.5854179268966774 5:1.0 6:1.0 15:1.0 25:1.0 38:1.0 44:1.0 52:1.0 64:1.0 67:1.0 72:1.0 74:1.0 76:1.0 79:1.0 83:1.0 
-1.0 1:1.0 6:1.0 17:1.0 19:1.0 39:1.0 42:1.0 51:1.0 64:1.0 67:1.0 73:1.0 74:1.0 76:1.0 80:1.0 83:1.0 
-1.0 2:1.0 6:1.0 18:1.0 19:1.0 39:1.0 40:1.0 51:1.0 63:1.0 67:1.0 73:1.0 74:1.0 76:1.0 80:1.0 83:1.0 
-1.0 5:1.0 10:1.0 18:1.0 29:1.0 39:1.0 44:1.0 52:1.0 64:1.0 67:1.0 72:1.0 74:1.0 76:1.0 80:1.0 83:1.0 
-1.0 5:1.0 6:1.0 15:1.0 33:1.0 35:1.0 40:1.0 53:1.0 63:1.0 67:1.0 73:1.0 74:1.0 76:1.0 82:1.0 
-1.0 4:1.0 7:1.0 17:1.0 19:1.0 39:1.0 40:1.0 51:1.0 63:1.0 67:1.0 73:1.0 74:1.0 76:1.0 82:1.0 88:1.0 
-0.7709548105039626 2:1.0 6:1.0 18:1.0 22:1.0 36:1.0 40:1.0 51:1.0 61:1.0 67:1.0 72:1.0 74:1.0 76:1.0 80:1.0 83:1.0 
-1.0 3:1.0 7:1.0 18:1.0 22:1.0 36:1.0 40:1.0 51:1.0 63:1.0 67:1.0 73:1.0 74:1.0 76:1.0 82:1.0 83:1.0 
-1.0 4:1.0 6:1.0 18:1.0 20:1.0 37:1.0 40:1.0 47:1.0 63:1.0 67:1.0 73:1.0 74:1.0 76:1.0 80:1.0 83:1.0 
-1.0 3:1.0 6:1.0 16:1.0 19:1.0 39:1.0 40:1.0 49:1.0 61:1.0 67:1.0 72:1.0 74:1.0 76:1.0 80:1.0 83:1.0 
-1.0 5:1.0 6:1.0 15:1.0 20:1.0 37:1.0 41:1.0 48:1.0 64:1.0 67:1.0 73:1.0 75:1.0 76:1.0 80:1.0 83:1.0 
-1.0 3:1.0 10:1.0 17:1.0 20:1.0 37:1.0 40:1.0 48:1.0 63:1.0 67:1.0 73:1.0 74:1.0 77:1.0 80:1.0 83:1.0 
-0.20587602866992874 3:1.0 6:1.0 14:1.0 19:1.0 39:1.0 42:1.0 50:1.0 62:1.0 71:1.0 72:1.0 74:1.0 76:1.0 80:1.0 83:1.0 
-0.06931888330120115 5:1.0 8:1.0 17:1.0 19:1.0 39:1.0 43:1.0 50:1.0 64:1.0 67:1.0 72:1.0 74:1.0 76:1.0 78:1.0 83:1.0 
-0.30619168727625695 5:1.0 8:1.0 15:1.0 20:1.0 37:1.0 41:1.0 51:1.0 64:1.0 67:1.0 73:1.0 74:1.0 76:1.0 82:1.0 83:1.0 
-1.0 5:1.0 6:1.0 17:1.0 20:1.0 37:1.0 40:1.0 48:1.0 63:1.0 67:1.0 73:1.0 74:1.0 76:1.0 80:1.0 83:1.0 
-1.0 2:1.0 11:1.0 17:1.0 23:1.0 39:1.0 42:1.0 52:1.0 64:1.0 68:1.0 73:1.0 75:1.0 76:1.0 82:1.0 90:1.0 
-0.0850002686362584 3:1.0 7:1.0 15:1.0 20:1.0 37:1.0 40:1.0 48:1.0 63:1.0 69:1.0 73:1.0 74:1.0 76:1.0 82:1.0 83:1.0 
-1.0 4:1.0 6:1.0 18:1.0 22:1.0 36:1.0 40:1.0 50:1.0 63:1.0 67:1.0 73:1.0 75:1.0 76:1.0 82:1.0 83:1.0 
-1.0 2:1.0 6:1.0 14:1.0 19:1.0 39:1.0 42:1.0 52:1.0 64:1.0 67:1.0 72:1.0 75:1.0 76:1.0 80:1.0 83:1.0 
-1.0 2:1.0 6:1.0 14:1.0 19:1.0 39:1.0 40:1.0 50:1.0 63:1.0 67:1.0 73:1.0 74:1.0 76:1.0 82:1.0 83:1.0 
-1.0 5:1.0 6:1.0 16:1.0 22:1.0 36:1.0 40:1.0 52:1.0 63:1.0 67:1.0 73:1.0 75:1.0 76:1.0 80:1.0 83:1.0 
-1.0 5:1.0 7:1.0 14:1.0 27:1.0 35:1.0 40:1.0 50:1.0 63:1.0 67:1.0 73:1.0 74:1.0 76:1.0 82:1.0 83:1.0 
-1.0 3:1.0 6:1.0 18:1.0 19:1.0 39:1.0 40:1.0 51:1.0 61:1.0 67:1.0 72:1.0 74:1.0 76:1.0 82:1.0 88:1.0 
-0.5093090137527139 1:1.0 6:1.0 16:1.0 22:1.0 36:1.0 42:1.0 49:1.0 62:1.0 67:1.0 72:1.0 75:1.0 76:1.0 78:1.0 83:1.0 
-1.0 2:1.0 7:1.0 17:1.0 19:1.0 39:1.0 42:1.0 47:1.0 64:1.0 67:1.0 73:1.0 74:1.0 76:1.0 81:1.0 83:1.0 
-1.0 2:1.0 6:1.0 17:1.0 19:1.0 39:1.0 40:1.0 52:1.0 63:1.0 67:1.0 73:1.0 74:1.0 76:1.0 80:1.0 83:1.0 
-0.9850139613536495 2:1.0 6:1.0 17:1.0 19:1.0 39:1.0 42:1.0 47:1.0 62:1.0 67:1.0 73:1.0 74:1.0 76:1.0 80:1.0 83:1.0 
-1.0 3:1.0 11:1.0 18:1.0 29:1.0 39:1.0 40:1.0 59:1.0 63:1.0 71:1.0 73:1.0 74:1.0 76:1.0 80:1.0 83:1.0 
-1.0 4:1.0 6:1.0 16:1.0 20:1.0 37:1.0 40:1.0 54:1.0 63:1.0 71:1.0 73:1.0 74:1.0 76:1.0 80:1.0 83:1.0 
-0.8815329762204815 3:1.0 6:1.0 16:1.0 22:1.0 36:1.0 40:1.0 48:1.0 63:1.0 67:1.0 73:1.0 74:1.0 76:1.0 82:1.0 83:1.0 
-0.5490426183862736 3:1.0 6:1.0 16:1.0 21:1.0 35:1.0 40:1.0 54:1.0 63:1.0 67:1.0 73:1.0 74:1.0 76:1.0 80:1.0 83:1.0 
-1.0 2:1.0 6:1.0 16:1.0 19:1.0 39:1.0 40:1.0 51:1.0 63:1.0 67:1.0 73:1.0 74:1.0 76:1.0 80:1.0 107:1.0 
-0.006603024126279919 4:1.0 6:1.0 16:1.0 33:1.0 35:1.0 40:1.0 48:1.0 63:1.0 67:1.0 73:1.0 74:1.0 76:1.0 80:1.0 83:1.0 
-1.0 4:1.0 6:1.0 17:1.0 19:1.0 39:1.0 43:1.0 47:1.0 64:1.0 67:1.0 73:1.0 74:1.0 76:1.0 80:1.0 83:1.0 
-1.0 4:1.0 6:1.0 16:1.0 22:1.0 36:1.0 40:1.0 51:1.0 63:1.0 67:1.0 73:1.0 74:1.0 76:1.0 81:1.0 83:1.0 
-0.540738789866527 4:1.0 6:1.0 17:1.0 23:1.0 39:1.0 41:1.0 55:1.0 64:1.0 67:1.0 73:1.0 74:1.0 76:1.0 80:1.0 83:1.0 
-0.6440209370856914 3:1.0 6:1.0 15:1.0 22:1.0 36:1.0 40:1.0 54:1.0 63:1.0 67:1.0 73:1.0 74:1.0 76:1.0 80:1.0 83:1.0 
-1.0 4:1.0 7:1.0 14:1.0 19:1.0 39:1.0 40:1.0 56:1.0 63:1.0 67:1.0 73:1.0 74:1.0 76:1.0 82:1.0 83:1.0 
-1.0 4:1.0 6:1.0 15:1.0 22:1.0 36:1.0 40:1.0 51:1.0 63:1.0 67:1.0 73:1.0 74:1.0 76:1.0 82:1.0 83:1.0 
-0.6027311630445065 5:1.0 6:1.0 17:1.0 22:1.0 36:1.0 41:1.0 51:1.0 66:1.0 67:1.0 72:1.0 74:1.0 76:1.0 79:1.0 83:1.0 
-1.0 5:1.0 6:1.0 15:1.0 22:1.0 36:1.0 40:1.0 50:1.0 63:1.0 67:1.0 73:1.0 74:1.0 76:1.0 80:1.0 83:1.0 
-1.0 1:1.0 6:1.0 14:1.0 19:1.0 39:1.0 40:1.0 49:1.0 63:1.0 67:1.0 73:1.0 74:1.0 76:1.0 78:1.0 83:1.0 
-1.0 3:1.0 14:1.0 22:1.0 36:1.0 40:1.0 63:1.0 67:1.0 73:1.0 74:1.0 76:1.0 80:1.0 83:1.0 
-1.0 5:1.0 16:1.0 19:1.0 39:1.0 40:1.0 63:1.0 67:1.0 73:1.0 74:1.0 76:1.0 78:1.0 83:1.0 
-1.0 1:1.0 6:1.0 15:1.0 20:1.0 37:1.0 40:1.0 55:1.0 61:1.0 69:1.0 72:1.0 74:1.0 76:1.0 81:1.0 83:1.0 
-1.0 3:1.0 6:1.0 17:1.0 32:1.0 39:1.0 41:1.0 52:1.0 66:1.0 67:1.0 72:1.0 74:1.0 76:1.0 82:1.0 83:1.0 
